\data\
ngram 1=778
ngram 2=1768

\1-grams:
-3.3005335	<unk>	0
0	<s>	-0.23132864
-0.6279813	</s>	0
-1.982886	a	-0.12131629
-3.186734	bug	-0.08583302
-1.917259	is	-0.22732683
-3.0013325	never	-0.08583302
-3.186734	just	-0.08583302
-3.186734	mistake	-0.08583302
-2.3788018	it	-0.1560984
-3.186734	represents	-0.08583302
-2.5158439	an	-0.08583304
-3.186734	error	-0.08583302
-2.1909351	in	-0.17219998
-3.186734	thinking	-0.08583302
-3.186734	accelerate	-0.08583302
-2.8689728	action	-0.27768204
-2.8689728	controller	-0.22184873
-3.186734	add	-0.08583302
-2.6049569	ebx	-0.36797678
-3.186734	advice	-0.08583302
-3.186734	animals	-0.08583302
-3.186734	ah	-0.19401881
-3.186734	al	-0.08583302
-3.186734	alarm	-0.08583302
-3.0013325	number	-0.08583302
-2.3788018	all	-0.122131646
-3.186734	lines	-0.19401881
-3.186734	praise	-0.08583302
-3.186734	due	-0.08583302
-1.8974162	to	-0.11045903
-3.186734	allah	-0.08583302
-3.186734	lord	-0.08583302
-2.089403	of	-0.19539104
-1.7792736	the	-0.09052969
-3.186734	worlds	-0.08583302
-3.186734	types	-0.08583302
-2.2747884	are	-0.15579477
-2.4419396	not	-0.12593408
-3.186734	nilable	-0.08583302
-3.186734	american	-0.08583302
-3.186734	idiot	-0.08583302
-3.0013325	amp	-0.08583302
-3.186734	annoying	-0.08583302
-3.186734	orange	-0.08583302
-3.186734	object	-0.08583302
-3.186734	that	-0.08583302
-2.7172039	can	-0.08583302
-2.7172039	be	-0.08583302
-3.186734	used	-0.08583302
-3.186734	async	-0.08583302
-2.3788018	for	-0.107652865
-3.186734	statement	-0.08583302
-3.186734	anthony	-0.08583302
-3.186734	horowitz	-0.08583302
-3.186734	pathetic	-0.08583302
-3.186734	creature	-0.08583302
-3.186734	flesh	-0.08583302
-2.089403	and	-0.09724802
-3.186734	bone	-0.08583302
-2.8689728	apost	-0.34400856
-3.186734	apostrophe	-0.08583302
-3.186734	append	-0.08583298
-2.8689728	else	-0.15488511
-2.8689728	if	-0.17845522
-3.0013325	rescue	-0.19401881
-3.0013325	application	-0.08583302
-3.186734	april	-0.08583302
-3.186734	argument	-0.08583302
-2.5158439	seven	-0.5067745
-2.5158439	six	-0.5067745
-3.186734	asterix	-0.08583302
-3.186734	obelix	-0.08583302
-3.186734	asynchronous	-0.08583302
-3.186734	iterable	-0.08583302
-2.7172039	at	-0.13656586
-3.0013325	atom	-0.08583302
-2.6049569	text	-0.17011811
-2.8689728	editor	-0.2637364
-3.186734	august	-0.08583302
-3.186734	automatic	-0.08583302
-3.186734	memory	-0.08583302
-3.186734	management	-0.08583302
-3.186734	makes	-0.08583302
-3.186734	safe	-0.08583302
-3.0013325	simple	-0.08583302
-3.186734	robust	-0.08583302
-2.8689728	code	-0.08583302
-3.186734	autosave	-0.08583302
-3.0013325	variable	-0.15488511
-3.186734	defined	-0.08583302
-3.0013325	class	-0.15488511
-3.186734	ax	-0.08583302
-3.0013325	b	-0.19401881
-3.0013325	backslash	-0.19401881
-3.0013325	bang	-0.19401881
-3.0013325	base	-0.19401881
-3.186734	bash	-0.08583302
-3.0013325	because	-0.08583302
-3.186734	painful	-0.08583302
-3.186734	pretend	-0.08583302
-3.186734	curious	-0.08583302
-3.0013325	read	-0.08583298
-3.186734	widely	-0.08583302
-3.186734	lot	-0.08583302
-2.8689728	what	-0.13656586
-3.0013325	people	-0.08583302
-3.0013325	call	-0.08583302
-3.186734	intelligence	-0.08583302
-3.186734	boils	-0.08583302
-2.8689728	down	-0.15488511
-3.186734	curiosity	-0.08583302
-3.186734	beetlejuice	-0.08583302
-3.186734	begin	-0.08583302
-3.186734	bh	-0.08583302
-3.186734	bios	-0.08583302
-3.186734	bitcoin	-0.08583302
-3.186734	bit	-0.08583302
-3.186734	manipulation	-0.08583302
-3.186734	bl	-0.08583302
-3.186734	bobby	-0.08583302
-3.0013325	tables	-0.19401881
-3.186734	bp	-0.08583302
-2.7172039	brace	-0.36064643
-2.8689728	brack	-0.2637364
-3.186734	break	-0.08583302
-3.186734	main	-0.08583302
-2.7172039	start	-0.2637364
-2.5158439	brock	-0.28759968
-3.0013325	buffer	-0.19401881
-3.186734	bundle	-0.08583302
-3.0013325	install	-0.19401881
-3.186734	bundler	-0.08583302
-3.186734	but	-0.08583302
-2.8689728	like	-0.08583302
-3.0013325	power	-0.19401881
-3.186734	bx	-0.08583302
-3.186734	byte	-0.08583302
-3.186734	bytes	-0.08583302
-3.0013325	c	-0.19401881
-3.186734	cancel	-0.08583302
-3.186734	caps	-0.08583302
-2.3788018	git	-0.33797827
-3.186734	images	-0.08583302
-3.186734	lock	-0.08583302
-3.186734	carpal	-0.08583302
-3.186734	tunnel	-0.08583302
-3.186734	syndrome	-0.08583302
-3.186734	catalyst	-0.08583302
-3.0013325	new	-0.08583302
-3.186734	cat	-0.08583302
-3.186734	hat	-0.08583302
-3.186734	ch	-0.08583302
-2.8689728	chan	-0.34400856
-3.0013325	change	-0.08583302
-2.6049569	colon	-0.08583302
-2.8689728	space	-0.34400856
-3.0013325	none	-0.19401881
-2.8689728	escape	-0.114093855
-3.186734	char	-0.08583302
-2.7172039	star	-0.2637364
-3.0013325	checkout	-0.08583302
-3.186734	cl	-0.08583302
-2.5158439	pascal	-0.114093855
-3.186734	clean	-0.08583302
-3.186734	architecture	-0.08583302
-3.186734	clear	-0.08583302
-3.186734	cache	-0.08583302
-3.186734	cold	-0.08583302
-3.186734	fly	-0.08583302
-3.186734	arctic	-0.08583302
-3.186734	puffin	-0.08583302
-2.8689728	id	-0.15488511
-2.7172039	comma	-0.15488511
-3.186734	seperated	-0.08583302
-3.186734	values	-0.08583302
-2.8689728	commit	-0.13656586
-3.186734	complex	-0.08583302
-3.186734	morals	-0.08583302
-3.186734	context	-0.08583302
-2.8689728	menu	-0.34400856
-3.186734	control	-0.08583302
-3.186734	copy	-0.08583302
-3.186734	copyright	-0.08583302
-3.186734	crawling	-0.08583302
-3.0013325	my	-0.08583302
-3.186734	skin	-0.08583302
-3.0013325	these	-0.08583302
-3.186734	wounds	-0.08583302
-2.8689728	they	-0.08583302
-2.7172039	will	-0.08583302
-3.186734	heal	-0.08583302
-3.0013325	create	-0.08583302
-3.186734	bitfield	-0.08583302
-3.186734	pack	-0.08583302
-2.4419396	eight	-0.3228582
-3.186734	bits	-0.08583302
-3.186734	crystal	-0.12593408
-3.0013325	has	-0.08583302
-3.186734	dedicated	-0.08583302
-3.186734	syntax	-0.08583302
-3.186734	easily	-0.08583302
-3.186734	native	-0.08583302
-3.186734	libraries	-0.08583302
-2.8689728	programming	-0.36064643
-3.186734	language	-0.2637364
-3.186734	statically	-0.08583302
-3.0013325	type	-0.08583302
-3.186734	checked	-0.08583302
-3.186734	so	-0.08583302
-3.186734	any	-0.08583302
-3.186734	errors	-0.08583302
-3.186734	caught	-0.08583302
-3.186734	early	-0.08583302
-3.0013325	by	-0.08583302
-3.186734	compiler	-0.08583302
-3.186734	rather	-0.08583302
-3.186734	than	-0.08583302
-3.186734	fail	-0.08583302
-2.6049569	on	-0.08583298
-3.186734	runtime	-0.08583302
-2.7172039	lang	-0.4689473
-3.186734	uses	-0.08583302
-3.186734	green	-0.08583302
-3.186734	threads	-0.08583302
-3.186734	csv	-0.08583302
-3.186734	cut	-0.08583302
-3.186734	cx	-0.08583302
-3.186734	d	-0.22184873
-3.0013325	dank	-0.08583302
-2.6049569	dash	-0.12593408
-2.7172039	data	-0.13656586
-3.0013325	segment	-0.19401881
-3.186734	date	-0.08583302
-3.186734	time	-0.08583302
-3.186734	deadly	-0.08583302
-3.186734	neurotoxin	-0.08583302
-3.186734	december	-0.08583302
-3.186734	decrease	-0.08583302
-3.0013325	brightness	-0.19401881
-2.8689728	volume	-0.15488511
-3.186734	decrement	-0.08583302
-3.186734	def	-0.08583302
-3.0013325	define	-0.12593408
-3.186734	instance	-0.08583302
-3.0013325	label	-0.08583302
-3.186734	delegate	-0.08583302
-3.186734	dh	-0.08583302
-3.186734	di	-0.08583302
-3.186734	diary	-0.08583302
-3.186734	jane	-0.08583302
-3.186734	dip	-0.08583302
-3.0013325	general	-0.15488511
-3.186734	purpose	-0.08583302
-2.5158439	with	-0.08583302
-3.186734	static	-0.08583302
-3.186734	typing	-0.08583302
-3.186734	made	-0.08583302
-3.186734	possible	-0.08583302
-3.186734	through	-0.08583302
-3.186734	hard	-0.08583302
-3.186734	work	-0.08583302
-3.186734	dedication	-0.08583302
-3.186734	many	-0.08583302
-3.186734	volunteers	-0.08583302
-3.186734	dl	-0.08583302
-3.0013325	doctor	-0.19401881
-3.0013325	dot	-0.22184873
-3.186734	double	-0.08583302
-2.8689728	slash	-0.15488511
-3.0013325	do	-0.08583302
-2.1206818	you	-0.1657382
-3.0013325	want	-0.08583302
-3.186734	pirate	-0.08583302
-2.8689728	free	-0.08583302
-3.186734	drop	-0.08583302
-3.0013325	shell	-0.15488511
-3.186734	dx	-0.08583302
-3.186734	e	-0.08583302
-3.186734	easy	-0.08583302
-3.186734	transcribe	-0.08583302
-2.4419396	eax	-0.481802
-3.186734	ebp	-0.08583302
-3.0013325	ecx	-0.34400856
-3.186734	ed	-0.08583302
-3.186734	edi	-0.08583302
-3.0013325	standard	-0.08583302
-3.186734	edx	-0.19401881
-3.186734	efi	-0.08583302
-3.0013325	eighteen	-0.19401881
-2.4419396	thousand	-0.5647664
-3.0013325	eighty	-0.19401881
-3.186734	eleven	-0.08583302
-3.186734	elf	-0.08583302
-3.186734	executable	-0.08583302
-3.186734	format	-0.08583302
-2.1543894	end	-0.28498995
-2.7172039	paren	-0.36797678
-2.7172039	snake	-0.20185588
-3.0013325	speech	-0.19401881
-2.8689728	equal	-0.15488511
-2.8689728	hash	-0.2392324
-2.8689728	question	-0.34400856
-2.6049569	stop	-0.12593408
-3.0013325	tab	-0.19401881
-3.186734	esi	-0.19401881
-3.186734	esp	-0.08583302
-3.0013325	every	-0.08583302
-3.186734	black	-0.08583302
-3.186734	day	-0.08583302
-2.3788018	i	-0.15153281
-3.186734	ever	-0.08583302
-3.186734	stopped	-0.08583302
-3.186734	exec	-0.08583302
-3.186734	execute	-0.08583302
-3.186734	filter	-0.08583302
-3.186734	macro	-0.08583302
-3.0013325	f	-0.19401881
-3.186734	false	-0.08583302
-3.186734	fatal	-0.08583302
-3.0013325	exception	-0.08583302
-3.186734	thrown	-0.08583302
-3.186734	february	-0.08583302
-3.186734	fifteen	-0.08583302
-2.7172039	fifty	-0.13656586
-2.8689728	file	-0.08583302
-3.186734	complaint	-0.08583302
-3.186734	manager	-0.08583302
-3.0013325	first	-0.13656586
-2.8689728	last	-0.2637364
-3.0013325	previous	-0.2637364
-2.4419396	five	-0.5067745
-3.0013325	force	-0.08583302
-3.186734	jump	-0.08583302
-2.8689728	push	-0.23644717
-3.186734	forfeit	-0.08583302
-3.186734	game	-0.08583302
-3.186734	before	-0.08583302
-3.186734	somebody	-0.08583302
-3.186734	takes	-0.08583302
-2.8689728	out	-0.08583302
-3.186734	frame	-0.08583302
-3.0013325	forgery	-0.19401881
-2.2747884	one	-0.34182945
-2.8689728	software	-0.15488511
-3.0013325	other	-0.08583302
-3.186734	kinds	-0.08583302
-3.0013325	works	-0.08583302
-3.186734	forty	-0.08583298
-2.6049569	four	-0.30103
-2.5158439	nine	-0.26295885
-2.3236885	three	-0.4125384
-2.1543894	two	-0.45807233
-3.186734	fourteen	-0.08583302
-3.186734	friday	-0.08583302
-2.6049569	from	-0.08583302
-3.186734	array	-0.08583302
-2.7172039	get	-0.20841841
-3.186734	full	-0.08583302
-3.186734	battery	-0.08583302
-3.186734	g	-0.08583302
-2.8689728	minus	-0.08583302
-3.0013325	plus	-0.08583302
-3.186734	item	-0.08583302
-3.0013325	twelve	-0.19401881
-3.0013325	m	-0.08583302
-3.186734	initial	-0.08583302
-3.186734	hub	-0.08583302
-3.186734	ignore	-0.08583302
-3.186734	lab	-0.08583302
-3.186734	large	-0.08583302
-3.186734	storage	-0.08583302
-3.186734	modules	-0.08583302
-3.0013325	set	-0.08583302
-3.186734	origin	-0.08583302
-3.186734	master	-0.08583302
-3.186734	glib	-0.08583302
-3.186734	glow	-0.08583302
-3.186734	harder	-0.08583302
-3.186734	darks	-0.08583302
-2.7172039	gnu	-0.118988134
-3.0013325	nano	-0.08583302
-3.186734	great	-0.08583302
-3.186734	go	-0.08583302
-3.186734	google	-0.08583302
-3.186734	sucks	-0.08583302
-3.186734	gui	-0.08583302
-3.186734	features	-0.08583302
-3.0013325	h	-0.08583302
-3.186734	half	-0.4689473
-3.186734	life	-0.13656586
-3.186734	confirmed	-0.08583302
-3.186734	event	-0.08583302
-3.0013325	key	-0.08583302
-3.186734	include	-0.08583302
-3.186734	library	-0.08583302
-3.0013325	hating	-0.08583302
-3.186734	rappers	-0.08583302
-3.186734	hello	-0.08583302
-3.0013325	again	-0.08583302
-3.186734	welcome	-0.08583302
-3.186734	aperture	-0.08583302
-3.186734	science	-0.08583302
-3.186734	computer	-0.08583302
-3.186734	aided	-0.08583302
-3.186734	enrichment	-0.08583302
-3.186734	center	-0.08583302
-3.186734	he	-0.08583302
-3.186734	said	-0.08583302
-3.0013325	son	-0.08583302
-2.7172039	when	-0.12593408
-3.186734	grow	-0.08583302
-2.8689728	up	-0.08583302
-3.186734	would	-0.08583302
-3.186734	saviour	-0.08583302
-3.186734	broken	-0.08583302
-3.186734	beaten	-0.08583302
-3.186734	damned	-0.08583302
-3.186734	hide	-0.08583302
-2.7172039	line	-0.14432256
-3.186734	numbers	-0.19401881
-3.186734	hit	-0.08583302
-3.0013325	or	-0.08583302
-3.0013325	miss	-0.08583302
-3.186734	guess	-0.08583302
-3.186734	huh	-0.08583302
-3.186734	holder	-0.08583302
-3.186734	home	-0.08583302
-2.7172039	directory	-0.4689473
-3.0013325	am	-0.13656586
-2.6049569	me	-0.22184873
-3.186734	rage	-0.08583302
-3.186734	love	-0.08583302
-2.8689728	message	-0.08583302
-3.186734	length	-0.08583302
-2.7172039	hundred	-0.27768204
-2.8689728	list	-0.15488511
-3.186734	captcha	-0.08583302
-3.186734	valid	-0.08583302
-3.186734	careful	-0.08583302
-3.186734	newspapers	-0.08583302
-2.8689728	have	-0.08583302
-3.0013325	who	-0.08583302
-3.186734	oppressed	-0.08583302
-3.0013325	know	-0.08583302
-3.186734	things	-0.08583302
-3.186734	getting	-0.08583302
-3.186734	tougher	-0.08583302
-3.0013325	top	-0.08583302
-3.186734	bottom	-0.08583302
-3.186734	barrel	-0.08583302
-2.8689728	see	-0.08583302
-3.186734	somehow	-0.08583302
-3.186734	world	-0.08583302
-3.186734	image	-0.08583302
-3.186734	macros	-0.08583302
-3.186734	myself	-0.08583302
-3.186734	strange	-0.08583302
-3.186734	unusual	-0.08583302
-3.186734	inc	-0.08583302
-3.186734	increase	-0.08583302
-3.186734	increment	-0.08583302
-3.186734	index	-0.08583302
-3.186734	information	-0.08583302
-3.186734	ini	-0.08583302
-3.186734	support	-0.08583302
-3.0013325	input	-0.19401881
-3.186734	insert	-0.08583302
-3.186734	intellectual	-0.08583302
-3.186734	property	-0.08583302
-3.186734	joke	-0.08583302
-3.186734	abstract	-0.08583302
-3.186734	feel	-0.08583302
-3.186734	bigger	-0.08583302
-3.186734	inside	-0.08583302
-3.186734	j	-0.08583302
-3.0013325	jack	-0.08583302
-3.186734	january	-0.08583302
-3.186734	javascript	-0.08583302
-3.186734	actual	-0.08583302
-3.186734	cancer	-0.08583302
-3.186734	jmp	-0.08583302
-3.186734	json	-0.08583302
-3.186734	july	-0.08583302
-3.186734	june	-0.08583302
-3.186734	k	-0.08583302
-3.186734	kids	-0.08583302
-3.186734	doing	-0.08583302
-3.186734	across	-0.08583302
-3.186734	nation	-0.08583302
-3.186734	knees	-0.08583302
-3.186734	weak	-0.08583302
-3.186734	arms	-0.08583302
-3.186734	heavy	-0.08583302
-3.186734	l	-0.08583302
-3.186734	languages	-0.08583302
-3.186734	leading	-0.08583302
-3.0013325	zeros	-0.19401881
-3.186734	left	-0.08583302
-3.186734	right	-0.08583302
-3.186734	lib	-0.08583302
-3.186734	libgmp	-0.08583302
-3.186734	licence	-0.08583302
-3.186734	linebreak	-0.08583302
-3.186734	linefeed	-0.08583302
-3.0013325	zero	-0.34400856
-3.186734	look	-0.08583302
-3.186734	hacker	-0.08583302
-3.186734	lurk	-0.08583302
-3.186734	mage	-0.08583302
-3.186734	make	-0.08583302
-3.0013325	march	-0.19401881
-3.186734	may	-0.08583302
-3.186734	parameters	-0.08583302
-3.186734	microsoft	-0.08583302
-3.186734	horrid	-0.08583302
-3.186734	company	-0.08583302
-3.186734	million	-0.08583302
-3.186734	mask	-0.08583302
-3.186734	monday	-0.08583302
-3.186734	more	-0.08583302
-3.186734	mov	-0.15488511
-3.186734	n	-0.08583302
-3.186734	name	-0.08583302
-3.186734	next	-0.08583302
-3.186734	nineteen	-0.08583302
-3.0013325	ninety	-0.08583302
-3.186734	year	-0.08583302
-3.186734	old	-0.08583302
-3.186734	army	-0.08583302
-3.0013325	no	-0.13656586
-3.0013325	arab	-0.08583302
-3.186734	above	-0.08583302
-3.186734	non	-0.08583302
-3.186734	node	-0.08583302
-3.0013325	js	-0.19401881
-3.186734	geek	-0.08583302
-3.186734	commodore	-0.08583302
-3.0013325	sixty	-0.08583302
-3.186734	hack	-0.08583302
-2.7172039	into	-0.08583302
-3.186734	nasa	-0.08583302
-3.0013325	november	-0.19401881
-3.0013325	yes	-0.15488511
-3.186734	npm	-0.08583302
-3.186734	null	-0.08583302
-3.186734	o	-0.08583302
-3.186734	october	-0.08583302
-3.0013325	off	-0.08583302
-3.186734	oh	-0.08583302
-3.186734	mankind	-0.08583302
-2.8689728	your	-0.08583302
-3.186734	injustice	-0.08583302
-3.186734	only	-0.08583302
-3.186734	against	-0.08583302
-3.186734	yourselves	-0.08583302
-3.186734	open	-0.08583302
-3.186734	chromium	-0.08583302
-3.186734	firefox	-0.08583302
-3.0013325	telegram	-0.19401881
-3.0013325	as	-0.08583302
-3.186734	taken	-0.08583302
-3.186734	calling	-0.08583302
-2.8689728	linux	-0.15488511
-3.186734	p	-0.08583302
-3.186734	page	-0.08583302
-3.186734	parent	-0.08583302
-3.186734	paste	-0.08583302
-3.186734	pep	-0.08583302
-3.186734	plain	-0.08583302
-3.186734	play	-0.08583302
-3.186734	crash	-0.08583302
-3.186734	pop	-0.08583302
-3.186734	postgres	-0.08583302
-3.186734	pound	-0.08583302
-3.186734	precepts	-0.08583302
-3.186734	prepend	-0.08583302
-3.186734	prev	-0.08583302
-3.186734	print	-0.08583302
-3.186734	screen	-0.08583302
-3.186734	process	-0.08583302
-2.8689728	protect	-0.08583302
-3.186734	put	-0.08583302
-3.186734	pedal	-0.08583302
-3.186734	metal	-0.08583302
-3.186734	python	-0.08583302
-3.186734	livespeech	-0.08583302
-3.186734	source	-0.08583302
-3.186734	compiled	-0.08583302
-3.186734	bytecode	-0.08583302
-3.186734	q	-0.08583302
-3.186734	quit	-0.08583302
-3.186734	r	-0.08583302
-3.186734	rat	-0.08583302
-3.186734	wires	-0.08583302
-3.186734	rax	-0.08583302
-3.186734	rbp	-0.08583302
-3.186734	rbx	-0.08583302
-3.186734	rcx	-0.08583302
-3.186734	rdi	-0.08583302
-3.186734	react	-0.08583302
-3.0013325	write	-0.08583302
-3.186734	rebind	-0.08583302
-3.186734	keys	-0.08583302
-3.186734	redo	-0.08583302
-3.0013325	regex	-0.19401881
-3.0013325	remember	-0.08583302
-3.186734	fifth	-0.08583302
-3.186734	replace	-0.08583302
-3.186734	current	-0.08583302
-3.186734	repne	-0.08583302
-3.186734	reserved	-0.08583302
-3.186734	resist	-0.08583302
-3.186734	botnet	-0.08583302
-3.186734	return	-0.08583302
-3.186734	ricardo	-0.08583302
-3.186734	mojo	-0.08583302
-3.186734	richard	-0.08583302
-3.186734	mortimer	-0.08583302
-2.8689728	rights	-0.15488511
-3.186734	rocket	-0.08583302
-3.186734	operator	-0.08583302
-3.186734	rop	-0.08583302
-3.186734	rope	-0.08583302
-3.186734	rsi	-0.08583302
-3.186734	rsp	-0.08583302
-3.186734	ruby	-0.08583302
-3.186734	s	-0.08583302
-3.186734	saturday	-0.08583302
-3.186734	save	-0.08583302
-3.186734	saved	-0.08583302
-3.186734	dataset	-0.08583302
-3.186734	scasb	-0.08583302
-3.186734	scasd	-0.08583302
-3.186734	scasw	-0.08583302
-3.186734	score	-0.08583302
-3.186734	good	-0.08583302
-3.186734	guys	-0.08583302
-3.186734	scratchpad	-0.08583302
-3.186734	select	-0.08583302
-3.186734	users	-0.08583302
-3.186734	where	-0.08583302
-3.0013325	september	-0.08583302
-3.186734	seventeen	-0.08583302
-3.0013325	seventy	-0.08583302
-3.186734	shadow	-0.08583302
-3.186734	edge	-0.08583302
-3.186734	hog	-0.08583302
-3.186734	utilities	-0.08583302
-3.186734	shout	-0.08583302
-3.186734	show	-0.08583298
-3.186734	terminal	-0.08583302
-3.186734	si	-0.08583302
-3.186734	since	-0.08583302
-3.186734	dolphin	-0.08583302
-3.186734	release	-0.08583302
-3.186734	sixteen	-0.08583302
-3.186734	sort	-0.08583302
-3.0013325	transcripts	-0.19401881
-3.186734	sp	-0.08583302
-3.186734	spinning	-0.08583302
-3.186734	motion	-0.08583302
-3.186734	causing	-0.08583302
-3.186734	commotion	-0.08583302
-3.186734	comment	-0.08583302
-3.186734	struct	-0.08583302
-3.186734	bigint	-0.08583302
-3.186734	int	-0.08583302
-3.186734	sunday	-0.08583302
-3.186734	system	-0.08583302
-3.186734	t	-0.08583302
-3.186734	tabulate	-0.08583302
-3.0013325	take	-0.08583302
-3.186734	screenshot	-0.08583302
-3.0013325	ten	-0.19401881
-3.0013325	web	-0.15488511
-3.186734	ego	-0.08583302
-3.186734	public	-0.19401881
-2.8689728	license	-0.13656586
-3.186734	copyleft	-0.08583302
-3.186734	licenses	-0.08583302
-3.186734	most	-0.08583302
-3.186734	practical	-0.08583302
-3.186734	designed	-0.08583302
-3.186734	away	-0.08583302
-3.0013325	freedom	-0.19401881
-3.186734	purge	-0.08583302
-3.186734	there	-0.08583302
-3.0013325	those	-0.19401881
-3.186734	kept	-0.08583302
-3.186734	themselves	-0.08583302
-3.186734	probably	-0.08583302
-3.186734	tie	-0.08583302
-3.186734	knot	-0.08583302
-3.186734	different	-0.08583302
-3.186734	ways	-0.08583302
-3.186734	thirteen	-0.08583302
-3.186734	thirty	-0.08583298
-3.186734	this	-0.08583302
-3.186734	refers	-0.08583302
-3.186734	version	-0.08583302
-3.186734	been	-0.08583302
-3.186734	locked	-0.08583302
-3.186734	standing	-0.08583302
-3.186734	idly	-0.08583302
-3.186734	throw	-0.08583302
-3.186734	thursday	-0.08583302
-3.186734	tick	-0.08583302
-3.186734	tock	-0.08583302
-3.186734	seconds	-0.08583302
-3.186734	level	-0.08583302
-2.7172039	we	-0.08583302
-3.186734	need	-0.08583302
-3.186734	prevent	-0.08583302
-3.186734	others	-0.08583302
-3.186734	denying	-0.08583302
-3.186734	trailing	-0.08583302
-3.186734	true	-0.08583302
-3.186734	tuesday	-0.08583302
-3.186734	twenty	-0.08583302
-3.186734	arguments	-0.08583302
-3.186734	u	-0.08583302
-3.186734	ubuntu	-0.08583302
-3.186734	gnome	-0.08583302
-3.186734	unity	-0.08583302
-3.186734	underscore	-0.08583302
-3.186734	undo	-0.08583302
-3.186734	use	-0.08583302
-3.186734	luke	-0.08583302
-3.186734	utf	-0.08583302
-3.186734	v	-0.08583302
-3.186734	vim	-0.08583302
-3.186734	keybinding	-0.08583302
-3.186734	violet	-0.08583302
-3.186734	vomit	-0.08583302
-3.186734	his	-0.08583302
-3.186734	sweater	-0.08583302
-3.186734	mums	-0.08583302
-3.186734	spaghetti	-0.08583302
-3.186734	w	-0.08583302
-3.186734	wake	-0.08583302
-3.186734	ends	-0.08583302
-3.186734	services	-0.08583302
-3.186734	wednesday	-0.08583302
-3.186734	live	-0.08583302
-3.186734	society	-0.08583302
-3.186734	told	-0.08583302
-3.186734	referring	-0.19401881
-3.186734	fact	-0.08583302
-3.186734	was	-0.08583302
-3.186734	young	-0.08583302
-3.186734	boy	-0.08583302
-3.186734	father	-0.08583302
-3.186734	took	-0.08583302
-3.186734	city	-0.08583302
-3.186734	marching	-0.08583302
-3.186734	band	-0.08583302
-3.186734	speak	-0.08583302
-3.186734	wifi	-0.19401881
-3.186734	active	-0.08583302
-3.186734	inactive	-0.08583302
-3.186734	woe	-0.08583302
-3.0013325	words	-0.15488511
-3.186734	divide	-0.08583302
-3.186734	whole	-0.08583302
-3.0013325	thirds	-0.15488511
-3.0013325	x	-0.12593408
-3.186734	caret	-0.08583302
-3.186734	marks	-0.08583302
-3.186734	spot	-0.08583302
-3.186734	xml	-0.08583302
-3.186734	xor	-0.08583302
-3.186734	xubuntu	-0.08583302
-3.186734	y	-0.08583302
-3.186734	yeet	-0.08583302
-3.186734	bring	-0.08583302
-3.186734	friends	-0.08583302
-3.186734	z	-0.08583302

\2-grams:
-0.70047206	a </s>
-0.42874268	thinking </s>
-0.42874268	accelerate </s>
-0.571252	action </s>
-0.32829428	controller </s>
-0.20682055	ebx </s>
-0.42874268	animals </s>
-0.2916186	ah </s>
-0.42874268	al </s>
-0.5482966	number </s>
-0.6138767	all </s>
-0.2916186	lines </s>
-0.42874268	worlds </s>
-0.42874268	nilable </s>
-0.42874268	idiot </s>
-0.5482966	amp </s>
-0.42874268	orange </s>
-0.42874268	statement </s>
-0.42874268	horowitz </s>
-0.42874268	bone </s>
-0.18457274	apost </s>
-0.42874268	apostrophe </s>
-0.6398876	append </s>
-0.39247832	else </s>
-0.40822992	if </s>
-0.2916186	rescue </s>
-0.5482966	application </s>
-0.42874268	april </s>
-0.1329031	seven </s>
-0.1329031	six </s>
-0.42874268	obelix </s>
-0.42874268	iterable </s>
-0.45331365	at </s>
-0.5482966	atom </s>
-0.51812536	text </s>
-0.26869342	editor </s>
-0.42874268	august </s>
-0.5967815	code </s>
-0.42874268	autosave </s>
-0.39247832	variable </s>
-0.39247832	class </s>
-0.42874268	ax </s>
-0.2916186	b </s>
-0.2916186	backslash </s>
-0.2916186	bang </s>
-0.2916186	base </s>
-0.42874268	bash </s>
-0.42874268	pretend </s>
-0.6398876	read </s>
-0.39247832	down </s>
-0.42874268	curiosity </s>
-0.42874268	beetlejuice </s>
-0.42874268	begin </s>
-0.42874268	bh </s>
-0.42874268	bios </s>
-0.42874268	bitcoin </s>
-0.42874268	manipulation </s>
-0.42874268	bl </s>
-0.2916186	tables </s>
-0.42874268	bp </s>
-0.20002577	brace </s>
-0.26869342	brack </s>
-0.42874268	main </s>
-0.26869342	start </s>
-0.2789741	brock </s>
-0.2916186	buffer </s>
-0.5482966	bundle </s>
-0.2916186	install </s>
-0.42874268	bundler </s>
-0.2916186	power </s>
-0.42874268	bx </s>
-0.42874268	byte </s>
-0.42874268	bytes </s>
-0.2916186	c </s>
-0.42874268	cancel </s>
-0.62321746	caps </s>
-0.315277	git </s>
-0.42874268	images </s>
-0.42874268	lock </s>
-0.42874268	syndrome </s>
-0.5482966	new </s>
-0.42874268	hat </s>
-0.42874268	ch </s>
-0.18457274	chan </s>
-0.65136755	colon </s>
-0.18457274	space </s>
-0.2916186	none </s>
-0.6667215	escape </s>
-0.5482966	char </s>
-0.26869342	star </s>
-0.5482966	checkout </s>
-0.42874268	cl </s>
-0.5466152	pascal </s>
-0.42874268	architecture </s>
-0.42874268	cache </s>
-0.42874268	puffin </s>
-0.39247832	id </s>
-0.54520917	comma </s>
-0.42874268	values </s>
-0.45331365	commit </s>
-0.42874268	morals </s>
-0.18457274	menu </s>
-0.42874268	control </s>
-0.42874268	copy </s>
-0.42874268	copyright </s>
-0.42874268	heal </s>
-0.28686425	eight </s>
-0.42874268	bits </s>
-0.42874268	libraries </s>
-0.8584883	programming </s>
-0.26869342	language </s>
-0.5482966	by </s>
-0.6398876	on </s>
-0.42874268	runtime </s>
-0.1305746	lang </s>
-0.42874268	threads </s>
-0.42874268	csv </s>
-0.42874268	cut </s>
-0.42874268	cx </s>
-0.751596	d </s>
-0.5482966	dank </s>
-0.67346233	dash </s>
-0.45331365	data </s>
-0.2916186	segment </s>
-0.42874268	time </s>
-0.42874268	neurotoxin </s>
-0.42874268	december </s>
-0.5967815	decrease </s>
-0.2916186	brightness </s>
-0.39247832	volume </s>
-0.42874268	decrement </s>
-0.42874268	def </s>
-0.5482966	label </s>
-0.42874268	delegate </s>
-0.42874268	dh </s>
-0.42874268	di </s>
-0.42874268	jane </s>
-0.42874268	dip </s>
-0.42874268	typing </s>
-0.42874268	volunteers </s>
-0.42874268	dl </s>
-0.2916186	doctor </s>
-0.32829428	dot </s>
-0.5967815	double </s>
-0.39247832	slash </s>
-0.5794151	you </s>
-0.5482966	pirate </s>
-0.39247832	shell </s>
-0.42874268	dx </s>
-0.42874268	e </s>
-0.42874268	transcribe </s>
-0.18188617	eax </s>
-0.42874268	ebp </s>
-0.18457274	ecx </s>
-0.5482966	ed </s>
-0.42874268	edi </s>
-0.2916186	edx </s>
-0.42874268	efi </s>
-0.2916186	eighteen </s>
-0.113890186	thousand </s>
-0.2916186	eighty </s>
-0.42874268	eleven </s>
-0.42874268	format </s>
-0.8007459	end </s>
-0.20682055	paren </s>
-0.38499773	snake </s>
-0.2916186	speech </s>
-0.39247832	equal </s>
-0.38793683	hash </s>
-0.18457274	question </s>
-0.4943765	stop </s>
-0.2916186	tab </s>
-0.2916186	esi </s>
-0.42874268	esp </s>
-0.6902208	i </s>
-0.42874268	exec </s>
-0.5967815	execute </s>
-0.42874268	filter </s>
-0.42874268	macro </s>
-0.2916186	f </s>
-0.42874268	false </s>
-0.5482966	exception </s>
-0.42874268	thrown </s>
-0.42874268	february </s>
-0.42874268	fifteen </s>
-0.45331365	fifty </s>
-0.5967815	file </s>
-0.42874268	manager </s>
-0.45331365	first </s>
-0.26869342	last </s>
-0.26869342	previous </s>
-0.1329031	five </s>
-0.42874268	jump </s>
-0.33086473	push </s>
-0.5967815	out </s>
-0.42874268	frame </s>
-0.2916186	forgery </s>
-0.23859107	one </s>
-0.5482966	works </s>
-0.67527986	forty </s>
-0.25338146	four </s>
-0.29595265	nine </s>
-0.19075249	three </s>
-0.18764672	two </s>
-0.42874268	fourteen </s>
-0.42874268	friday </s>
-0.65136755	from </s>
-0.5931713	get </s>
-0.42874268	battery </s>
-0.42874268	g </s>
-0.2916186	twelve </s>
-0.5967815	m </s>
-0.42874268	ignore </s>
-0.42874268	storage </s>
-0.42874268	modules </s>
-0.42874268	master </s>
-0.42874268	glib </s>
-0.42874268	harder </s>
-0.42874268	darks </s>
-0.67993265	gnu </s>
-0.5482966	go </s>
-0.42874268	sucks </s>
-0.42874268	features </s>
-0.5482966	h </s>
-0.6639341	life </s>
-0.42874268	confirmed </s>
-0.5482966	key </s>
-0.42874268	rappers </s>
-0.42874268	center </s>
-0.5967815	up </s>
-0.42874268	damned </s>
-0.565644	line </s>
-0.2916186	numbers </s>
-0.42874268	huh </s>
-0.42874268	holder </s>
-0.1305746	directory </s>
-0.32829428	me </s>
-0.42874268	love </s>
-0.3443542	hundred </s>
-0.39247832	list </s>
-0.42874268	oppressed </s>
-0.5967815	know </s>
-0.42874268	barrel </s>
-0.62321746	see </s>
-0.42874268	macros </s>
-0.42874268	unusual </s>
-0.5967815	increase </s>
-0.5482966	increment </s>
-0.42874268	index </s>
-0.42874268	support </s>
-0.2916186	input </s>
-0.5482966	insert </s>
-0.42874268	joke </s>
-0.42874268	feel </s>
-0.42874268	inside </s>
-0.42874268	j </s>
-0.5482966	jack </s>
-0.42874268	january </s>
-0.42874268	cancer </s>
-0.42874268	json </s>
-0.42874268	july </s>
-0.42874268	june </s>
-0.42874268	k </s>
-0.42874268	nation </s>
-0.42874268	heavy </s>
-0.42874268	l </s>
-0.42874268	languages </s>
-0.2916186	zeros </s>
-0.42874268	right </s>
-0.5482966	lib </s>
-0.42874268	licence </s>
-0.42874268	linebreak </s>
-0.42874268	linefeed </s>
-0.18457274	zero </s>
-0.42874268	hacker </s>
-0.42874268	lurk </s>
-0.42874268	mage </s>
-0.2916186	march </s>
-0.42874268	may </s>
-0.42874268	company </s>
-0.42874268	monday </s>
-0.42874268	more </s>
-0.39247832	mov </s>
-0.42874268	n </s>
-0.42874268	name </s>
-0.42874268	next </s>
-0.5482966	nineteen </s>
-0.5482966	ninety </s>
-0.42874268	army </s>
-0.45331365	no </s>
-0.5482966	arab </s>
-0.5482966	node </s>
-0.2916186	js </s>
-0.5482966	sixty </s>
-0.42874268	nasa </s>
-0.2916186	november </s>
-0.39247832	yes </s>
-0.5482966	npm </s>
-0.42874268	null </s>
-0.42874268	o </s>
-0.42874268	october </s>
-0.5482966	off </s>
-0.42874268	yourselves </s>
-0.42874268	chromium </s>
-0.42874268	firefox </s>
-0.2916186	telegram </s>
-0.39247832	linux </s>
-0.42874268	p </s>
-0.42874268	parent </s>
-0.42874268	paste </s>
-0.42874268	crash </s>
-0.42874268	pop </s>
-0.42874268	postgres </s>
-0.42874268	pound </s>
-0.42874268	precepts </s>
-0.42874268	prepend </s>
-0.42874268	prev </s>
-0.5482966	print </s>
-0.42874268	screen </s>
-0.5967815	protect </s>
-0.42874268	metal </s>
-0.42874268	livespeech </s>
-0.42874268	bytecode </s>
-0.42874268	q </s>
-0.42874268	quit </s>
-0.42874268	r </s>
-0.42874268	wires </s>
-0.42874268	rax </s>
-0.42874268	rbp </s>
-0.42874268	rbx </s>
-0.42874268	rcx </s>
-0.42874268	rdi </s>
-0.5967815	write </s>
-0.42874268	keys </s>
-0.42874268	redo </s>
-0.2916186	regex </s>
-0.42874268	repne </s>
-0.42874268	reserved </s>
-0.42874268	botnet </s>
-0.42874268	mojo </s>
-0.42874268	mortimer </s>
-0.39247832	rights </s>
-0.42874268	operator </s>
-0.42874268	rop </s>
-0.42874268	rope </s>
-0.42874268	rsi </s>
-0.42874268	rsp </s>
-0.42874268	s </s>
-0.42874268	saturday </s>
-0.42874268	save </s>
-0.42874268	dataset </s>
-0.42874268	scasb </s>
-0.42874268	scasd </s>
-0.42874268	scasw </s>
-0.42874268	guys </s>
-0.42874268	scratchpad </s>
-0.5482966	september </s>
-0.42874268	seventeen </s>
-0.5482966	seventy </s>
-0.42874268	hog </s>
-0.42874268	utilities </s>
-0.42874268	terminal </s>
-0.42874268	si </s>
-0.42874268	release </s>
-0.42874268	sixteen </s>
-0.2916186	transcripts </s>
-0.42874268	sp </s>
-0.42874268	commotion </s>
-0.42874268	comment </s>
-0.42874268	sunday </s>
-0.5482966	t </s>
-0.42874268	tabulate </s>
-0.42874268	screenshot </s>
-0.2916186	ten </s>
-0.39247832	web </s>
-0.42874268	ego </s>
-0.45331365	license </s>
-0.2916186	freedom </s>
-0.42874268	purge </s>
-0.42874268	themselves </s>
-0.42874268	ways </s>
-0.42874268	thirteen </s>
-0.67527986	thirty </s>
-0.42874268	thursday </s>
-0.42874268	tock </s>
-0.42874268	seconds </s>
-0.42874268	true </s>
-0.42874268	tuesday </s>
-0.6786451	twenty </s>
-0.42874268	arguments </s>
-0.42874268	u </s>
-0.42874268	gnome </s>
-0.42874268	unity </s>
-0.42874268	underscore </s>
-0.42874268	undo </s>
-0.42874268	luke </s>
-0.42874268	v </s>
-0.42874268	keybinding </s>
-0.42874268	violet </s>
-0.42874268	spaghetti </s>
-0.42874268	w </s>
-0.42874268	ends </s>
-0.42874268	services </s>
-0.42874268	wednesday </s>
-0.42874268	society </s>
-0.42874268	band </s>
-0.42874268	active </s>
-0.42874268	inactive </s>
-0.648504	thirds </s>
-0.4943765	x </s>
-0.42874268	spot </s>
-0.42874268	xml </s>
-0.42874268	xubuntu </s>
-0.42874268	y </s>
-0.42874268	yeet </s>
-0.42874268	friends </s>
-0.42874268	z </s>
-1.986077	<s> a
-0.5542904	is a
-0.7261437	just a
-0.6774157	in a
-1.4191852	to a
-1.6534355	are a
-1.0078752	because a
-0.7261437	widely a
-1.0078752	create a
-1.0078752	has a
-1.360014	define a
-1.4153821	with a
-1.1654892	file a
-1.2727047	see a
-0.7261437	above a
-0.7261437	return a
-0.7261437	causing a
-0.7261437	was a
-0.7261437	divide a
-2.239089	a bug
-0.7229365	bug is
-0.71938455	it is
-0.7229365	praise is
-1.0017601	atom is
-1.1567254	code is
-1.1659156	id is
-0.814825	crystal is
-0.47427374	d is
-1.0017601	pirate is
-1.0017601	ed is
-0.7229365	hub is
-0.7229365	lab is
-1.0017601	nano is
-0.7229365	information is
-0.7229365	property is
-0.7229365	javascript is
-0.7229365	microsoft is
-0.7229365	injustice is
-1.1659156	linux is
-1.0017601	ruby is
-1.2702878	license is
-0.4341138	wifi is
-2.1551867	is never
-1.2175574	they never
-1.0447918	never just
-2.239089	a mistake
-2.4430866	<s> it
-0.7381104	mistake it
-1.0310642	because it
-1.1992264	break it
-1.3163785	see it
-0.7381104	doing it
-0.7381104	calling it
-0.7381104	shout it
-1.6907958	it represents
-2.5315065	<s> an
-2.0855927	is an
-0.7403221	represents an
-1.8000859	in an
-1.2056524	like an
-0.7403221	throw an
-1.5824808	an error
-1.9904689	is in
-0.73372066	error in
-0.73372066	used in
-0.73372066	defined in
-0.73372066	cat in
-0.73372066	crawling in
-1.3719121	i in
-1.0224879	glow in
-1.186653	write in
-1.2999845	replace in
-0.73372066	spinning in
-0.73372066	live in
-1.8467208	in thinking
-3.1749873	<s> accelerate
-2.4665182	<s> action
-1.4320769	append action
-1.685644	brock action
-2.966475	<s> controller
-0.48283023	action controller
-1.0420282	application controller
-3.1749873	<s> add
-2.5835342	<s> ebx
-0.74143213	add ebx
-1.5737604	ebx ebx
-0.9142242	comma ebx
-1.2089013	or ebx
-3.1749873	<s> advice
-0.7450489	advice animals
-2.8144622	<s> ah
-3.1749873	<s> al
-3.1749873	<s> alarm
-3.0596225	<s> number
-0.744363	alarm number
-2.1756558	<s> all
-1.6412282	it all
-1.1992264	like all
-1.3163785	change all
-1.3197953	am all
-0.7381104	make all
-0.7381104	select all
-1.4056389	show all
-1.1804637	all lines
-1.7748444	all praise
-2.1681192	is due
-2.1123247	<s> to
-0.7218727	due to
-1.7621421	to to
-1.5620935	not to
-1.1634034	down to
-1.3831406	brace to
-1.3948883	colon to
-1.7380686	escape to
-0.7218727	syntax to
-1.1634034	volume to
-0.9997407	want to
-0.9997407	drop to
-1.7034925	get to
-0.7218727	welcome to
-0.7218727	taken to
-0.7218727	pedal to
-0.7218727	saved to
-0.7218727	designed to
-0.7218727	refers to
-0.7218727	need to
-0.43368703	referring to
-0.7218727	city to
-0.7218727	woe to
-2.0981798	to allah
-0.7450489	allah lord
-1.6488378	all of
-0.73045725	lord of
-0.73045725	creature of
-0.73045725	lot of
-0.73045725	pack of
-0.73045725	diary of
-0.73045725	dedication of
-1.1774563	out of
-0.73045725	kinds of
-1.7424994	three of
-1.016165	son of
-0.73045725	saviour of
-0.73045725	bottom of
-0.73045725	fifth of
-0.73045725	speak of
-1.7651513	<s> the
-1.789042	is the
-1.6024593	in the
-1.3673925	to the
-0.5962683	of the
-1.2330244	be the
-1.4828058	for the
-1.622738	and the
-0.98586196	by the
-1.3053151	on the
-1.3611983	with the
-0.7144979	through the
-0.7144979	forfeit the
-1.3611983	from the
-1.6528069	get the
-0.98586196	hating the
-0.7144979	broken the
-0.71605504	am the
-0.7144979	careful the
-0.7144979	somehow the
-0.7144979	across the
-1.2330244	into the
-0.7144979	put the
-0.98586196	remember the
-0.7144979	resist the
-0.7144979	shadow the
-0.7144979	since the
-0.7144979	tie the
-0.98586196	use the
-0.7144979	marks the
-2.3096178	the worlds
-1.7748444	all types
-0.73591	types are
-0.9738356	you are
-1.1928942	out are
-1.0267547	works are
-1.1928942	who are
-0.73591	things are
-0.73591	kids are
-0.73591	arms are
-0.73591	there are
-1.3081042	we are
-2.61827	<s> not
-1.5547574	is not
-0.85604	are not
-1.3205755	can not
-0.73921484	painful not
-1.3205755	will not
-1.0332348	do not
-1.7347085	not nilable
-3.1749873	<s> american
-0.7450489	american idiot
-3.0596225	<s> amp
-1.3405459	replace amp
-1.5824808	an annoying
-0.7450489	annoying orange
-1.5824808	an object
-0.7450489	object that
-0.74254507	that can
-1.2121748	they can
-1.9024765	you can
-1.510777	four can
-2.850076	<s> be
-1.3334156	can be
-1.3334156	will be
-1.9024765	you be
-1.3432589	be used
-1.5824808	an async
-2.4430866	<s> for
-0.7381104	async for
-0.7381104	makes for
-1.3163785	change for
-1.9070158	i for
-1.7734747	one for
-0.7381104	licenses for
-0.7381104	kept for
-1.6896553	for statement
-3.1749873	<s> anthony
-0.7450489	anthony horowitz
-2.239089	a pathetic
-0.7450489	pathetic creature
-1.9076174	of flesh
-0.73045725	flesh and
-0.73045725	asterix and
-1.016165	simple and
-0.73045725	cold and
-0.73045725	work and
-0.60925364	software and
-0.73045725	hello and
-0.73045725	beaten and
-0.73045725	rage and
-0.8285319	hundred and
-0.73045725	strange and
-0.73045725	left and
-1.1774563	write and
-0.73045725	ricardo and
-0.73045725	richard and
-1.955891	and bone
-2.966475	<s> apost
-2.014656	end apost
-1.5086594	open apost
-3.1749873	<s> apostrophe
-2.207698	<s> append
-2.966475	<s> else
-1.4320769	append else
-0.7436608	somebody else
-2.1797588	<s> if
-1.4320769	append if
-1.3389395	what if
-3.0596225	<s> rescue
-1.4355145	append rescue
-3.0596225	<s> application
-1.578633	pascal application
-3.1749873	<s> april
-2.8144622	<s> argument
-2.5315065	<s> seven
-1.0354166	argument seven
-1.6896147	forty seven
-1.8587892	get seven
-1.6896147	thirty seven
-1.725722	twenty seven
-2.5315065	<s> six
-1.0354166	argument six
-1.6896147	forty six
-1.0354166	seventy six
-1.6896147	thirty six
-1.725722	twenty six
-3.1749873	<s> asterix
-1.955891	and obelix
-3.1749873	<s> asynchronous
-0.7450489	asynchronous iterable
-2.850076	<s> at
-1.9993768	escape at
-0.74254507	look at
-1.3334156	replace at
-3.0596225	<s> atom
-1.5127629	open atom
-2.7583714	<s> text
-2.145534	a text
-1.4276325	dot text
-0.74143213	great text
-0.74143213	plain text
-0.838539	text editor
-1.215473	code editor
-1.0420282	standard editor
-3.1749873	<s> august
-3.1749873	<s> automatic
-0.7450489	automatic memory
-0.7450489	memory management
-0.7450489	management makes
-1.6896553	for safe
-0.744363	safe simple
-1.7314304	snake simple
-1.955891	and robust
-0.7436608	robust code
-1.7262393	snake code
-0.7436608	source code
-3.1749873	<s> autosave
-1.6586117	a variable
-0.744363	instance variable
-1.2201651	variable defined
-2.7603648	<s> class
-2.2197933	a class
-3.1749873	<s> ax
-3.0596225	<s> b
-1.0434251	plus b
-3.0596225	<s> backslash
-1.2175574	double backslash
-3.0596225	<s> bang
-2.0312243	escape bang
-3.0596225	<s> base
-1.5127629	colon base
-3.1749873	<s> bash
-3.0596225	<s> because
-1.0434251	want because
-2.1681192	is painful
-2.0981798	to pretend
-1.3432589	be curious
-2.31834	<s> read
-0.744363	curious read
-1.4388931	read widely
-2.239089	a lot
-2.711109	<s> what
-1.892187	of what
-1.0420282	do what
-2.2853913	the people
-1.3414049	what people
-1.0434251	people call
-0.744363	easily call
-1.0447918	call intelligence
-0.7450489	intelligence boils
-1.6804819	it down
-0.7436608	boils down
-1.0420282	page down
-2.0981798	to curiosity
-3.1749873	<s> beetlejuice
-3.1749873	<s> begin
-3.1749873	<s> bh
-3.1749873	<s> bios
-3.1749873	<s> bitcoin
-3.1749873	<s> bit
-0.7450489	bit manipulation
-3.1749873	<s> bl
-3.1749873	<s> bobby
-0.744363	bobby tables
-1.0434251	drop tables
-3.1749873	<s> bp
-2.850076	<s> brace
-1.3334156	change brace
-1.446259	escape brace
-2.0016704	end brace
-2.966475	<s> brack
-1.8325528	in brack
-1.4349695	end brack
-2.5223248	<s> break
-1.2195997	break main
-2.850076	<s> start
-1.2121748	break start
-1.0398132	label start
-0.74254507	jmp start
-2.6826954	<s> brock
-1.4237049	controller brock
-1.9632022	escape brock
-1.5534075	pascal brock
-0.8740358	end brock
-0.7403221	include brock
-3.0596225	<s> buffer
-0.744363	current buffer
-2.8144622	<s> bundle
-1.0434251	bundle install
-1.0434251	npm install
-3.1749873	<s> bundler
-3.1749873	<s> but
-0.7436608	but like
-0.7436608	fly like
-0.7436608	knot like
-2.1551867	is power
-1.7681344	all power
-3.1749873	<s> bx
-3.1749873	<s> byte
-3.1749873	<s> bytes
-3.0596225	<s> c
-1.839668	in c
-3.1749873	<s> cancel
-2.337122	<s> caps
-1.6153735	<s> git
-1.1238598	not git
-1.3163785	caps git
-1.0310642	checkout git
-1.3197953	commit git
-1.6048162	push git
-1.8373629	get git
-1.1992264	set git
-1.3432589	caps images
-1.3432589	caps lock
-3.1749873	<s> carpal
-0.7450489	carpal tunnel
-0.7450489	tunnel syndrome
-3.1749873	<s> catalyst
-0.744363	catalyst new
-1.0434251	create new
-3.1749873	<s> cat
-2.239089	a hat
-3.1749873	<s> ch
-2.966475	<s> chan
-1.6867906	eight chan
-1.0420282	nano chan
-2.493876	<s> change
-1.3405459	will change
-2.5835342	<s> colon
-1.4276325	controller colon
-1.7404633	all colon
-1.4958439	colon colon
-1.5737604	paren colon
-2.966475	<s> space
-2.0695243	to space
-2.0186605	escape space
-2.0837958	to none
-2.0312243	escape none
-1.5379792	<s> escape
-1.3377814	change escape
-2.0186605	escape escape
-2.8144622	<s> char
-2.850076	<s> star
-1.9993768	escape star
-1.0398132	char star
-1.5022043	with star
-3.0596225	<s> checkout
-2.0832882	git checkout
-3.1749873	<s> cl
-2.6826954	<s> pascal
-1.2082249	class pascal
-1.6675967	brock pascal
-1.4246836	end pascal
-1.0354166	lib pascal
-0.7403221	struct pascal
-3.1749873	<s> clean
-0.7450489	clean architecture
-3.1749873	<s> clear
-0.7450489	clear cache
-3.1749873	<s> cold
-1.955891	and fly
-1.5824808	an arctic
-0.7450489	arctic puffin
-2.2618768	the id
-1.5086594	colon id
-0.7436608	where id
-2.642654	<s> comma
-1.5777237	ebx comma
-1.9993768	escape comma
-1.0423658	eax comma
-1.5179241	comma seperated
-0.7450489	seperated values
-2.966475	<s> commit
-1.4955189	git commit
-0.7436608	initial commit
-3.1749873	<s> complex
-0.7450489	complex morals
-3.1749873	<s> context
-0.7436608	context menu
-1.0420282	hide menu
-1.4320769	show menu
-3.1749873	<s> control
-3.1749873	<s> copy
-3.1749873	<s> copyright
-3.1749873	<s> crawling
-1.839668	in my
-0.744363	boy my
-1.0447918	my skin
-0.744363	skin these
-1.9248558	you these
-1.0447918	these wounds
-2.966475	<s> they
-0.7436608	wounds they
-0.7436608	guess they
-1.2121748	they will
-0.74254507	errors will
-0.74254507	newspapers will
-0.74254507	world will
-1.7347085	not heal
-3.0596225	<s> create
-1.7314304	snake create
-2.239089	a bitfield
-0.7450489	bitfield pack
-2.323867	<s> eight
-1.8458645	of eight
-1.6617439	brock eight
-1.6798604	forty eight
-1.6798604	thirty eight
-1.7151322	twenty eight
-0.73921484	utf eight
-1.6938924	eight bits
-2.207698	<s> crystal
-1.4363697	crystal has
-1.4363697	define has
-2.239089	a dedicated
-0.7450489	dedicated syntax
-2.0981798	to easily
-1.0447918	call native
-0.7450489	native libraries
-2.966475	<s> programming
-1.3071783	a programming
-0.7436608	purpose programming
-0.27691364	programming language
-2.1681192	is statically
-0.744363	statically type
-0.744363	any type
-1.0447918	type checked
-0.7450489	checked so
-0.7450489	so any
-1.0447918	type errors
-1.3432589	be caught
-0.7450489	caught early
-0.744363	early by
-0.744363	idly by
-2.3096178	the compiler
-0.7450489	compiler rather
-0.7450489	rather than
-0.7450489	than fail
-2.7583714	<s> on
-0.74143213	fail on
-0.74143213	bigger on
-1.0376093	off on
-0.74143213	vomit on
-1.4388931	on runtime
-1.4282722	crystal lang
-1.4315958	d lang
-1.0398132	go lang
-1.0398132	ruby lang
-1.4394553	crystal uses
-0.7450489	uses green
-0.7450489	green threads
-3.1749873	<s> csv
-3.1749873	<s> cut
-3.1749873	<s> cx
-2.207698	<s> d
-3.0596225	<s> dank
-2.2853913	the dank
-2.7583714	<s> dash
-1.3311802	commit dash
-1.9511513	i dash
-1.6223769	push dash
-1.2089013	python dash
-2.850076	<s> data
-1.0398132	amp data
-1.3383945	star data
-1.4315958	dot data
-1.4372264	text segment
-1.3414049	data segment
-3.1749873	<s> date
-0.7450489	date time
-3.1749873	<s> deadly
-0.7450489	deadly neurotoxin
-3.1749873	<s> december
-2.5223248	<s> decrease
-1.2175574	decrease brightness
-1.2175574	increase brightness
-1.215473	decrease volume
-1.215473	set volume
-1.215473	increase volume
-3.1749873	<s> decrement
-3.1749873	<s> def
-2.493876	<s> define
-0.91839236	hash define
-1.0447918	has instance
-3.0596225	<s> label
-1.4363697	define label
-3.1749873	<s> delegate
-3.1749873	<s> dh
-3.1749873	<s> di
-3.1749873	<s> diary
-1.9076174	of jane
-3.1749873	<s> dip
-2.2197933	a general
-0.91773313	gnu general
-1.2201651	general purpose
-1.327352	at with
-1.332599	language with
-1.327352	data with
-0.7403221	complaint with
-1.5641053	nine with
-0.7403221	geek with
-1.5168023	with static
-0.7450489	static typing
-2.1681192	is made
-0.7450489	made possible
-0.7450489	possible through
-2.3096178	the hard
-0.7450489	hard work
-1.955891	and dedication
-1.9076174	of many
-0.7450489	many volunteers
-3.1749873	<s> dl
-3.0596225	<s> doctor
-2.2853913	the doctor
-2.31834	<s> dot
-1.5127629	with dot
-2.5223248	<s> double
-2.966475	<s> slash
-1.215473	double slash
-1.5098035	gnu slash
-3.0596225	<s> do
-1.9248558	you do
-2.3248928	<s> you
-1.874675	to you
-1.5136993	if you
-1.2978833	at you
-0.7312424	what you
-1.1805003	free you
-0.7315423	stopped you
-0.7315423	takes you
-0.824533	when you
-0.7315423	would you
-1.1805003	have you
-1.1805003	know you
-0.7315423	denying you
-0.7315423	told you
-1.9248558	you want
-1.2175574	who want
-1.663827	a pirate
-2.2008586	a free
-2.1423132	is free
-1.892187	of free
-2.8144622	<s> drop
-2.7603648	<s> shell
-2.0837958	to shell
-3.1749873	<s> dx
-3.1749873	<s> e
-3.1749873	<s> easy
-0.7450489	easy transcribe
-2.4850502	<s> eax
-1.4891984	comma eax
-1.6105913	push eax
-0.73921484	inc eax
-1.0332348	increment eax
-1.2054564	mov eax
-0.73921484	xor eax
-3.1749873	<s> ebp
-2.7603648	<s> ecx
-1.6383663	push ecx
-2.8144622	<s> ed
-3.1749873	<s> edi
-2.2853913	the standard
-1.6895189	brock standard
-2.8144622	<s> edx
-3.1749873	<s> efi
-3.0596225	<s> eighteen
-1.7664671	twenty eighteen
-1.5727681	seven thousand
-1.5727681	six thousand
-1.0873327	eight thousand
-1.7801626	one thousand
-1.4989938	four thousand
-1.7866825	three thousand
-1.9278277	two thousand
-3.0596225	<s> eighty
-0.744363	pep eighty
-3.1749873	<s> eleven
-3.1749873	<s> elf
-0.7450489	elf executable
-0.7450489	executable format
-1.831994	<s> end
-1.312903	editor end
-1.8560872	escape end
-1.5432918	paren end
-1.7414981	one end
-1.02037	h end
-1.02037	key end
-1.1835657	message end
-0.73263013	length end
-0.73263013	valid end
-0.73263013	libgmp end
-0.73263013	bigint end
-0.73263013	int end
-2.850076	<s> paren
-1.446259	escape paren
-1.0805994	end paren
-1.4282722	stop paren
-2.4262288	<s> snake
-1.5704	if snake
-0.8369813	define snake
-0.87594706	end snake
-3.0596225	<s> speech
-2.0230143	end speech
-2.966475	<s> equal
-2.0186605	escape equal
-1.215473	message equal
-2.2998884	<s> hash
-2.0186605	escape hash
-1.0420282	insert hash
-2.966475	<s> question
-2.0186605	escape question
-1.7262393	snake question
-2.7583714	<s> stop
-1.9809129	escape stop
-0.74143213	library stop
-1.2089013	message stop
-0.74143213	parameters stop
-3.0596225	<s> tab
-2.0312243	escape tab
-2.8144622	<s> esi
-3.1749873	<s> esp
-3.0596225	<s> every
-1.7286396	not every
-1.0447918	every black
-0.7450489	black day
-1.8839526	<s> i
-1.0792115	for i
-1.5468242	if i
-0.7381104	day i
-0.74793416	get i
-1.4089957	when i
-1.0310642	miss i
-1.0310642	as i
-2.0044749	i ever
-0.7450489	ever stopped
-3.1749873	<s> exec
-2.5223248	<s> execute
-1.2195997	execute filter
-1.2195997	execute macro
-3.0596225	<s> f
-1.4363697	dash f
-3.1749873	<s> false
-3.1749873	<s> fatal
-1.5777854	an exception
-0.744363	fatal exception
-1.0447918	exception thrown
-3.1749873	<s> february
-3.1749873	<s> fifteen
-2.850076	<s> fifty
-2.0477262	to fifty
-1.9178605	and fifty
-1.2121748	like fifty
-2.966475	<s> file
-0.7436608	large file
-1.5086594	open file
-2.239089	a complaint
-2.3096178	the manager
-2.493876	<s> first
-1.3431699	last first
-2.711109	<s> last
-1.3389395	first last
-1.3413215	previous last
-2.493876	<s> previous
-1.3414049	first previous
-2.61827	<s> five
-1.3235571	fifty five
-1.6798604	forty five
-1.0332348	ninety five
-0.73921484	dolphin five
-1.6798604	thirty five
-1.7151322	twenty five
-2.7603648	<s> force
-2.2853913	the force
-1.2195997	force jump
-2.2998884	<s> push
-1.1427683	git push
-1.215473	force push
-3.1749873	<s> forfeit
-2.3096178	the game
-0.7450489	game before
-0.7450489	before somebody
-1.2201651	else takes
-1.6804819	it out
-1.9160856	you out
-0.7436608	locked out
-2.3096178	the frame
-3.0596225	<s> forgery
-1.5127629	from forgery
-2.2410889	<s> one
-1.3212351	brack one
-1.3996692	dash one
-1.6518468	forty one
-1.1928942	minus one
-1.0267547	plus one
-1.5312291	line one
-0.73591	score one
-1.6518468	thirty one
-1.6848295	twenty one
-1.6781701	for software
-1.215473	free software
-0.7436608	most software
-1.3646739	and other
-1.0434251	hating other
-1.2195997	other kinds
-1.8999306	of works
-0.744363	practical works
-1.8481419	<s> forty
-2.5835342	<s> four
-1.6995931	forty four
-1.0376093	sixty four
-1.6995931	thirty four
-1.7365764	twenty four
-2.5315065	<s> nine
-1.633629	thousand nine
-1.6896147	forty nine
-1.3248135	replace nine
-1.6896147	thirty nine
-1.725722	twenty nine
-2.2669673	<s> three
-1.6609852	forty three
-1.9135736	two three
-1.8270336	get three
-0.7360995	life three
-1.1960487	python three
-1.6609852	thirty three
-0.7370088	version three
-1.6946973	twenty three
-2.0030072	<s> two
-1.9764594	is two
-1.7917938	and two
-1.4480588	with two
-1.7414981	one two
-1.6255312	forty two
-1.7880107	get two
-1.1835657	minus two
-0.73263013	item two
-1.3014594	life two
-1.5136297	line two
-1.6255312	thirty two
-1.6565038	twenty two
-3.1749873	<s> fourteen
-3.1749873	<s> friday
-2.5835342	<s> from
-1.7404633	all from
-1.0376093	top from
-1.2089013	protect from
-0.74143213	others from
-1.5168023	from array
-1.7817979	<s> get
-1.1337504	not get
-2.061592	git get
-0.74254507	array get
-3.1749873	<s> full
-0.7450489	full battery
-3.1749873	<s> g
-1.9832816	i minus
-1.0420282	t minus
-1.433228	x minus
-2.2197933	a plus
-1.9938821	i plus
-1.908048	get item
-3.0596225	<s> twelve
-1.900579	get twelve
-3.0596225	<s> m
-0.83904207	dash m
-1.2195997	m initial
-2.0917392	git hub
-2.0917392	git ignore
-2.0917392	git lab
-2.0917392	git large
-1.2195997	file storage
-2.0917392	git modules
-2.7603648	<s> set
-2.0832882	git set
-1.2195997	set origin
-0.7450489	origin master
-3.1749873	<s> glib
-2.8144622	<s> glow
-1.0447918	glow harder
-2.3096178	the darks
-2.642654	<s> gnu
-1.6723422	it gnu
-1.7182355	the gnu
-0.74254507	fact gnu
-3.0596225	<s> nano
-1.5136142	gnu nano
-2.239089	a great
-2.8144622	<s> go
-3.1749873	<s> google
-0.7450489	google sucks
-3.1749873	<s> gui
-0.7450489	gui features
-3.0596225	<s> h
-1.4363697	stop h
-2.337122	<s> half
-0.18009137	half life
-1.81827	three confirmed
-1.0447918	new event
-3.0596225	<s> key
-0.744363	event key
-1.5190761	hash include
-1.0447918	standard library
-3.0596225	<s> hating
-1.9248558	you hating
-1.2195997	other rappers
-3.1749873	<s> hello
-1.94516	and again
-0.744363	play again
-1.0447918	again welcome
-2.3096178	the aperture
-0.7450489	aperture science
-0.7450489	science computer
-0.7450489	computer aided
-0.7450489	aided enrichment
-0.7450489	enrichment center
-3.1749873	<s> he
-0.7450489	he said
-2.2853913	the son
-0.744363	said son
-2.642654	<s> when
-1.0398132	son when
-1.2121748	up when
-0.74254507	tougher when
-1.9335824	you grow
-0.7436608	grow up
-1.4355956	me up
-1.0420282	page up
-1.2195997	up would
-2.3096178	the saviour
-2.3096178	the broken
-2.3096178	the beaten
-2.3096178	the damned
-2.8144622	<s> hide
-2.272036	<s> line
-1.0398132	number line
-1.0398132	hide line
-1.426659	show line
-0.98544836	line numbers
-3.1749873	<s> hit
-2.7603648	<s> or
-0.744363	hit or
-1.0434251	never miss
-1.2175574	or miss
-2.0044749	i guess
-1.0447918	miss huh
-3.1749873	<s> holder
-3.1749873	<s> home
-0.74254507	home directory
-1.2138156	list directory
-1.426659	show directory
-0.74254507	level directory
-1.0600352	i am
-0.744363	myself am
-1.8684084	of me
-1.6602695	for me
-1.4213078	read me
-0.74143213	wake me
-0.74143213	took me
-1.9076174	of rage
-1.955891	and love
-2.966475	<s> message
-1.5764995	if message
-1.5086594	colon message
-1.4394553	stop length
-1.8008671	one hundred
-1.5740465	nine hundred
-1.8044832	three hundred
-1.3659732	two hundred
-2.966475	<s> list
-1.8325528	in list
-0.7436608	process list
-1.0447918	simple captcha
-0.7450489	captcha valid
-1.7347085	not careful
-2.3096178	the newspapers
-1.3377814	will have
-1.9832816	i have
-1.215473	who have
-1.0434251	people who
-0.4425763	those who
-1.8125118	are oppressed
-3.0596225	<s> know
-1.4130882	i know
-1.2195997	know things
-1.8125118	are getting
-0.7450489	getting tougher
-3.0596225	<s> top
-2.2853913	the top
-2.3096178	the bottom
-2.3096178	the barrel
-1.5076182	to see
-1.9344246	and see
-1.9160856	you see
-1.3432589	see somehow
-2.3096178	the world
-3.1749873	<s> image
-0.7450489	image macros
-2.0044749	i myself
-1.3438227	am strange
-1.955891	and unusual
-3.1749873	<s> inc
-2.5223248	<s> increase
-2.8144622	<s> increment
-3.1749873	<s> index
-3.1749873	<s> information
-3.1749873	<s> ini
-0.7450489	ini support
-3.0596225	<s> input
-1.4355145	read input
-2.8144622	<s> insert
-3.1749873	<s> intellectual
-0.7450489	intellectual property
-2.239089	a joke
-1.5824808	an abstract
-0.7450489	abstract feel
-2.1681192	is bigger
-2.3096178	the inside
-3.1749873	<s> j
-3.0596225	<s> jack
-1.0434251	jack jack
-3.1749873	<s> january
-3.1749873	<s> javascript
-2.1681192	is actual
-0.7450489	actual cancer
-3.1749873	<s> jmp
-3.1749873	<s> json
-3.1749873	<s> july
-3.1749873	<s> june
-3.1749873	<s> k
-3.1749873	<s> kids
-1.8125118	are doing
-1.7748444	all across
-2.3096178	the nation
-3.1749873	<s> knees
-0.7450489	knees weak
-0.7450489	weak arms
-1.8125118	are heavy
-3.1749873	<s> l
-3.1749873	<s> languages
-3.1749873	<s> leading
-0.744363	leading zeros
-0.744363	trailing zeros
-3.1749873	<s> left
-1.955891	and right
-2.8144622	<s> lib
-1.5830396	pascal libgmp
-3.1749873	<s> licence
-3.1749873	<s> linebreak
-3.1749873	<s> linefeed
-2.7603648	<s> zero
-1.5794822	line zero
-3.1749873	<s> look
-1.9335824	you hacker
-3.1749873	<s> lurk
-3.1749873	<s> mage
-3.1749873	<s> make
-3.0596225	<s> march
-0.744363	mask march
-3.1749873	<s> may
-1.2201651	equal parameters
-3.1749873	<s> microsoft
-2.239089	a horrid
-0.7450489	horrid company
-3.1749873	<s> million
-0.7450489	million mask
-3.1749873	<s> monday
-3.1749873	<s> more
-2.5223248	<s> mov
-3.1749873	<s> n
-3.1749873	<s> name
-3.1749873	<s> next
-2.8144622	<s> nineteen
-3.0596225	<s> ninety
-1.0434251	nineteen ninety
-1.5854602	nine year
-0.7450489	year old
-0.7450489	old army
-2.493876	<s> no
-1.2184203	yes no
-1.3414049	no arab
-0.744363	non arab
-1.0447918	arab above
-2.239089	a non
-2.8144622	<s> node
-1.0434251	node js
-0.744363	react js
-1.0447918	every geek
-2.239089	a commodore
-3.0596225	<s> sixty
-0.744363	commodore sixty
-1.3432589	can hack
-1.4315958	me into
-0.74254507	hack into
-0.74254507	compiled into
-0.74254507	whole into
-1.3432589	into nasa
-3.0596225	<s> november
-1.8999306	of november
-2.7603648	<s> yes
-1.3414049	no yes
-2.8144622	<s> npm
-3.1749873	<s> null
-3.1749873	<s> o
-3.1749873	<s> october
-3.0596225	<s> off
-1.4355145	on off
-3.1749873	<s> oh
-0.7450489	oh mankind
-0.7436608	mankind your
-1.215473	protect your
-0.7436608	away your
-1.2195997	your injustice
-2.1681192	is only
-0.7450489	only against
-0.7450489	against yourselves
-2.1081192	<s> open
-1.5168023	open chromium
-1.5168023	open firefox
-3.0596225	<s> telegram
-1.5127629	open telegram
-2.0837958	to as
-1.2175574	or as
-1.2195997	have taken
-2.0981798	to calling
-1.2166382	slash linux
-1.5098035	gnu linux
-1.0420282	as linux
-3.1749873	<s> p
-2.8144622	<s> page
-3.1749873	<s> parent
-3.1749873	<s> paste
-3.1749873	<s> pep
-3.1749873	<s> plain
-3.1749873	<s> play
-1.0447918	again crash
-3.1749873	<s> pop
-3.1749873	<s> postgres
-3.1749873	<s> pound
-3.1749873	<s> precepts
-3.1749873	<s> prepend
-3.1749873	<s> prev
-2.8144622	<s> print
-1.0447918	print screen
-3.1749873	<s> process
-2.966475	<s> protect
-2.0695243	to protect
-1.7262393	snake protect
-3.1749873	<s> put
-2.3096178	the pedal
-2.3096178	the metal
-2.5223248	<s> python
-1.2195997	m livespeech
-1.2195997	python source
-2.1681192	is compiled
-1.3432589	into bytecode
-3.1749873	<s> q
-3.1749873	<s> quit
-3.1749873	<s> r
-3.1749873	<s> rat
-0.7450489	rat wires
-3.1749873	<s> rax
-3.1749873	<s> rbp
-3.1749873	<s> rbx
-3.1749873	<s> rcx
-3.1749873	<s> rdi
-3.1749873	<s> react
-2.7603648	<s> write
-1.4355145	read write
-3.1749873	<s> rebind
-0.7450489	rebind keys
-3.1749873	<s> redo
-3.0596225	<s> regex
-1.0434251	use regex
-3.0596225	<s> remember
-1.0434251	remember remember
-2.3096178	the fifth
-2.337122	<s> replace
-1.8467208	in current
-3.1749873	<s> repne
-3.1749873	<s> reserved
-3.1749873	<s> resist
-2.3096178	the botnet
-3.1749873	<s> return
-3.1749873	<s> ricardo
-1.955891	and mojo
-3.1749873	<s> richard
-1.955891	and mortimer
-2.966475	<s> rights
-1.0420282	these rights
-1.215473	your rights
-3.1749873	<s> rocket
-0.7450489	rocket operator
-3.1749873	<s> rop
-3.1749873	<s> rope
-3.1749873	<s> rsi
-3.1749873	<s> rsp
-2.8144622	<s> ruby
-3.1749873	<s> s
-3.1749873	<s> saturday
-3.1749873	<s> save
-3.1749873	<s> saved
-2.239089	a dataset
-3.1749873	<s> scasb
-3.1749873	<s> scasd
-3.1749873	<s> scasw
-3.1749873	<s> score
-2.3096178	the good
-0.7450489	good guys
-3.1749873	<s> scratchpad
-3.1749873	<s> select
-1.5168023	from users
-0.7450489	users where
-3.0596225	<s> september
-1.4363697	when september
-3.1749873	<s> seventeen
-3.0596225	<s> seventy
-0.744363	system seventy
-3.1749873	<s> shadow
-2.3096178	the edge
-0.7450489	edge hog
-1.2201651	shell utilities
-3.1749873	<s> shout
-2.207698	<s> show
-1.4388931	show terminal
-3.1749873	<s> si
-3.1749873	<s> since
-2.3096178	the dolphin
-1.5880181	five release
-3.1749873	<s> sixteen
-1.7365532	snake sort
-3.0596225	<s> transcripts
-0.744363	sort transcripts
-3.1749873	<s> sp
-3.1749873	<s> spinning
-2.239089	a motion
-0.7450489	motion causing
-2.239089	a commotion
-1.34498	start comment
-3.1749873	<s> struct
-1.5830396	pascal bigint
-1.5830396	pascal int
-3.1749873	<s> sunday
-3.1749873	<s> system
-2.8144622	<s> t
-3.1749873	<s> tabulate
-3.0596225	<s> take
-2.0837958	to take
-1.0447918	take screenshot
-3.0596225	<s> ten
-1.2175574	minus ten
-2.7603648	<s> web
-1.0434251	dank web
-2.3096178	the ego
-0.618613	general public
-0.44230297	public license
-0.7436608	copyleft license
-0.7436608	this license
-1.2195997	free copyleft
-2.3096178	the licenses
-1.6896553	for most
-1.2195997	other practical
-1.8125118	are designed
-1.0447918	take away
-2.0837958	to freedom
-1.2175574	your freedom
-2.3096178	the purge
-3.1749873	<s> there
-3.0596225	<s> those
-1.8057401	are those
-1.6907958	it kept
-1.6896553	for themselves
-1.3432589	can probably
-0.7450489	probably tie
-2.3096178	the knot
-1.3438227	fifty different
-0.7450489	different ways
-3.1749873	<s> thirteen
-1.8481419	<s> thirty
-3.1749873	<s> this
-1.3438227	license refers
-2.0981798	to version
-1.2195997	have been
-0.7450489	been locked
-1.7347085	not standing
-0.7450489	standing idly
-3.1749873	<s> throw
-3.1749873	<s> thursday
-3.1749873	<s> tick
-0.7450489	tick tock
-1.9675599	two seconds
-1.0447918	top level
-2.850076	<s> we
-1.2138156	software we
-1.4282722	when we
-1.2138156	rights we
-1.3432589	we need
-2.0981798	to prevent
-0.7450489	prevent others
-1.5168023	from denying
-3.1749873	<s> trailing
-3.1749873	<s> true
-3.1749873	<s> tuesday
-1.8017999	<s> twenty
-1.9675599	two arguments
-3.1749873	<s> u
-2.8144622	<s> ubuntu
-1.0447918	ubuntu gnome
-1.0447918	ubuntu unity
-3.1749873	<s> underscore
-3.1749873	<s> undo
-2.8144622	<s> use
-1.2195997	force luke
-3.1749873	<s> utf
-3.1749873	<s> v
-3.1749873	<s> vim
-0.7450489	vim keybinding
-3.1749873	<s> violet
-3.1749873	<s> vomit
-1.4388931	on his
-0.7450489	his sweater
-0.7450489	sweater mums
-0.7450489	mums spaghetti
-3.1749873	<s> w
-3.1749873	<s> wake
-1.0447918	september ends
-1.2201651	web services
-3.1749873	<s> wednesday
-1.3432589	we live
-2.239089	a society
-2.0044749	i told
-1.2182213	are referring
-1.8467208	in fact
-2.0044749	i was
-2.239089	a young
-0.7450489	young boy
-1.0447918	my father
-0.7450489	father took
-2.3096178	the city
-2.239089	a marching
-0.7450489	marching band
-1.3432589	we speak
-2.8144622	<s> wifi
-2.1681192	is active
-2.1681192	is inactive
-3.1749873	<s> woe
-3.0596225	<s> words
-0.6181756	words words
-1.2201651	words divide
-2.239089	a whole
-1.3405459	into thirds
-0.6181756	thirds thirds
-2.31834	<s> x
-0.744363	caret x
-1.4394553	x caret
-1.4394553	x marks
-2.3096178	the spot
-3.1749873	<s> xml
-3.1749873	<s> xor
-3.1749873	<s> xubuntu
-3.1749873	<s> y
-3.1749873	<s> yeet
-2.0981798	to bring
-0.7450489	bring friends
-3.1749873	<s> z

\end\
