\data\
ngram 1=169
ngram 2=389

\1-grams:
-2.6029906	<unk>	0
0	<s>	-0.84023035
-0.75224185	</s>	0
-2.1537204	append	-0.11278257
-1.9070014	comment	-0.121766314
-2.4747546	check	-0.11278257
-2.1398695	if	-0.14061771
-2.0080109	we	-0.11524537
-2.3301399	are	-0.11278257
-2.1537204	already	-0.119381286
-2.4747546	on	-0.11278257
-1.6445351	the	-0.114751674
-2.1537204	final	-0.12271865
-2.3301399	argument	-0.14786443
-2.4747546	cat	-0.4193958
-2.1537204	add	-0.12271865
-2.0080109	esp	-0.11606937
-1.7562351	four	-0.34473768
-2.4747546	cmp	-0.11278257
-2.4747546	dword	-0.11278257
-2.0080109	ecx	-0.13585286
-2.3301399	minus	-0.12271865
-1.6968038	one	-0.26827207
-2.3301399	end	-0.11278257
-2.1398695	string	-0.11606937
-2.1398695	null	-0.11278257
-2.1398695	dash	-0.28515646
-2.4747546	n	-0.11278257
-2.3301399	a	-0.119381286
-2.3301399	newline	-0.117722176
-2.0080109	to	-0.11278257
-2.4747546	have	-0.11278257
-2.3301399	for	-0.11278257
-2.4747546	compare	-0.11278257
-1.8251084	edx	-0.12996934
-2.1537204	with	-0.11278257
-2.4747546	see	-0.11278257
-2.4747546	they	-0.11278257
-2.4747546	same	-0.11278257
-2.1537204	envp	-0.11278257
-2.3301399	comma	-0.11278257
-2.4747546	basically	-0.11278257
-2.4747546	combining	-0.11278257
-2.1398695	and	-0.11278257
-2.1537204	pop	-0.117722176
-2.3301399	twelve	-0.117722176
-2.1537204	because	-0.12271865
-2.1537204	do	-0.119381286
-2.4747546	not	-0.11278257
-2.4747546	care	-0.11278257
-2.4747546	what	-0.11278257
-2.4747546	gets	-0.11278257
-2.4747546	put	-0.11278257
-2.1537204	in	-0.119381286
-2.4747546	those	-0.11278257
-2.4747546	registers	-0.11278257
-2.3301399	after	-0.11278257
-2.3301399	get	-0.11278257
-2.4747546	count	-0.11278257
-2.1537204	first	-0.11278257
-2.1537204	there	-0.11278257
-2.0080109	no	-0.11606937
-2.4747546	arguments	-0.11278257
-2.1537204	just	-0.11278257
-2.3301399	exit	-0.14786443
-2.4747546	instantly	-0.11278257
-2.4747546	take	-0.11278257
-2.4747546	away	-0.11278257
-2.3301399	from	-0.11278257
-2.1537204	will	-0.12271865
-2.4747546	be	-0.11278257
-2.4747546	assured	-0.11278257
-2.4747546	kernel	-0.11278257
-2.4747546	interrupt	-0.11278257
-2.3301399	need	-0.11278257
-2.1537204	bswap	-0.11278257
-2.4747546	or	-0.11278257
-2.4747546	shift	-0.11278257
-2.4747546	rubbish	-0.11278257
-2.1537204	remove	-0.11278257
-2.4747546	program	-0.11278257
-2.4747546	name	-0.11278257
-2.3301399	stack	-0.11278257
-2.4747546	it	-0.11278257
-2.4747546	removes	-0.11278257
-2.4747546	character	-0.11278257
-2.4747546	memory	-0.11278257
-2.4747546	between	-0.11278257
-2.4747546	argv	-0.11278257
-2.4747546	bit	-0.11278257
-2.1537204	of	-0.11278257
-2.4747546	so	-0.11278257
-2.4747546	use	-0.11278257
-2.4747546	any	-0.11278257
-2.4747546	garbage	-0.11278257
-2.1537204	this	-0.11278257
-2.3301399	pointer	-0.117722176
-2.4747546	is	-0.12271865
-2.4747546	that	-0.11278257
-2.4747546	before	-0.11278257
-2.4747546	terminator	-0.11278257
-2.4747546	can	-0.11278257
-2.4747546	longer	-0.11278257
-2.4747546	keep	-0.11278257
-2.4747546	track	-0.11278257
-2.4747546	dec	-0.11278257
-2.3301399	ebx	-0.119381286
-2.4747546	inc	-0.11278257
-2.4747546	stdout	-0.11278257
-2.4747546	jne	-0.11278257
-2.0080109	label	-0.12040545
-2.4747546	main	-0.12271865
-2.4747546	jnz	-0.11278257
-2.4747546	most	-0.12271865
-2.1537204	args	-0.12271865
-2.4747546	jz	-0.12271865
-2.4747546	arg	-0.11278257
-2.4747546	only	-0.11278257
-2.4747546	strlen	-0.11278257
-2.4747546	nl	-0.11278257
-2.4747546	start	-0.11278257
-2.3301399	sysenter	-0.117722176
-2.4747546	cont	-0.12271865
-2.4747546	lea	-0.11278257
-2.1537204	ebp	-0.11278257
-2.4747546	mov	-0.11559832
-2.1537204	al	-0.11278257
-2.4747546	byte	-0.11278257
-2.4747546	space	-0.11278257
-2.3301399	eax	-0.11278257
-2.4747546	plus	-0.11278257
-2.4747546	push	-0.11278257
-2.4747546	sub	-0.11278257
-2.4747546	length	-0.11278257
-2.4747546	xor	-0.11278257
-2.1537204	change	-0.11278257
-2.0080109	three	-0.3820665
-2.4747546	global	-0.11278257
-2.4747546	syscall	-0.11278257
-2.1537204	rm	-0.3459629
-2.4747546	line	-0.26983154
-2.1537204	eight	-0.12271865
-2.4747546	eighteen	-0.11278257
-2.4747546	eleven	-0.11278257
-2.4747546	fifteen	-0.11278257
-2.1398695	five	-0.28515646
-2.4747546	fourteen	-0.11278257
-2.3301399	nine	-0.16021773
-2.4747546	nineteen	-0.11278257
-2.3301399	seven	-0.16021773
-2.4747546	seventeen	-0.11278257
-2.3301399	six	-0.16021773
-2.4747546	sixteen	-0.11278257
-2.4747546	ten	-0.11278257
-2.4747546	thirteen	-0.11278257
-2.4747546	thirty	-0.11278257
-2.1398695	two	-0.28515646
-2.4747546	twenty	-0.11278257
-2.4747546	make	-0.11278257
-2.4747546	eighty	-0.11278257
-2.4747546	ninety	-0.11278257
-2.4747546	hundred	-0.11278257
-2.4747546	thousand	-0.11278257
-2.4747546	run	-0.11278257
-2.4747546	save	-0.11278257
-2.4747546	shell	-0.11278257
-2.4747546	undo	-0.11278257
-2.1537204	unindent	-0.119381286
-2.4747546	yes	-0.11278257

\2-grams:
-0.799411	the </s>
-0.4470295	argument </s>
-1.1441653	cat </s>
-0.76059973	esp </s>
-0.24360688	four </s>
-0.5472183	ecx </s>
-0.34461734	one </s>
-0.71303123	null </s>
-0.71303123	n </s>
-0.58840454	newline </s>
-0.60756755	edx </s>
-0.43751547	same </s>
-0.58840454	twelve </s>
-0.67225814	after </s>
-0.43751547	count </s>
-0.76059973	no </s>
-0.4470295	exit </s>
-0.43751547	instantly </s>
-0.43751547	assured </s>
-0.43751547	interrupt </s>
-0.6006623	bswap </s>
-0.43751547	rubbish </s>
-0.43751547	it </s>
-0.43751547	memory </s>
-0.6006623	of </s>
-0.43751547	garbage </s>
-0.6006623	this </s>
-0.43751547	terminator </s>
-0.52505976	ebx </s>
-0.43751547	stdout </s>
-0.4207648	main </s>
-0.5910102	args </s>
-0.6006623	arg </s>
-0.43751547	nl </s>
-0.43751547	start </s>
-0.71650636	sysenter </s>
-0.4207648	cont </s>
-0.67225814	al </s>
-0.43751547	space </s>
-0.67225814	eax </s>
-0.43751547	length </s>
-0.18143848	three </s>
-0.43751547	syscall </s>
-0.4207648	eight </s>
-0.43751547	eighteen </s>
-0.43751547	eleven </s>
-0.43751547	fifteen </s>
-0.24174239	five </s>
-0.43751547	fourteen </s>
-0.36567605	nine </s>
-0.43751547	nineteen </s>
-0.36567605	seven </s>
-0.43751547	seventeen </s>
-0.36567605	six </s>
-0.43751547	sixteen </s>
-0.43751547	ten </s>
-0.43751547	thirteen </s>
-0.75803274	thirty </s>
-0.24174239	two </s>
-0.7977251	twenty </s>
-0.43751547	make </s>
-0.6006623	ninety </s>
-0.43751547	hundred </s>
-0.43751547	thousand </s>
-0.43751547	run </s>
-0.43751547	save </s>
-0.43751547	shell </s>
-0.43751547	undo </s>
-0.52505976	unindent </s>
-0.43751547	yes </s>
-2.5148346	<s> append
-1.8287857	comment append
-0.90689397	append comment
-0.48121297	cat comment
-1.466104	four comment
-1.3262533	ecx comment
-1.0672858	ebx comment
-0.90689397	arg comment
-1.6374213	comment check
-1.5852311	comment if
-0.92102	check if
-1.0871086	end if
-0.6302284	see if
-1.7709198	comment we
-0.71622103	if we
-1.3439152	ecx we
-0.5959246	because we
-1.0767107	stack we
-1.4924835	we are
-0.6339192	they are
-0.9282591	there are
-1.0880408	are already
-0.5995527	is already
-1.1035683	already on
-1.0281562	are the
-0.60871875	on the
-1.1990921	to the
-1.0281562	for the
-1.0281562	after the
-1.1268928	get the
-1.0281562	from the
-1.0281562	remove the
-0.60871875	removes the
-0.8799498	of the
-1.2626444	the final
-1.3646195	label final
-0.8975562	final argument
-1.2162104	get argument
-0.9282591	first argument
-0.3504237	<s> cat
-2.1505456	cat add
-0.63055366	combining add
-1.7709198	comment esp
-0.5959246	add esp
-1.0767107	comma esp
-1.1893381	pointer esp
-0.91389954	ebp esp
-1.2878838	esp four
-1.0469317	comma four
-1.0469317	al four
-0.6157709	plus four
-1.7971839	line four
-1.2870257	thirty four
-1.4390033	twenty four
-1.3756253	eighty four
-2.2460897	cat cmp
-0.63583285	cmp dword
-0.6265686	dword ecx
-1.4453057	edx ecx
-1.1893381	pop ecx
-0.76557916	in ecx
-1.0767107	from ecx
-1.0673674	esp minus
-1.3815517	ecx minus
-1.4941001	edx minus
-0.8593966	minus one
-0.6122305	take one
-1.0374424	eax one
-1.3285275	rm one
-1.7611234	line one
-1.2706623	thirty one
-1.4159632	twenty one
-1.3556428	eighty one
-0.88653076	ninety one
-1.5773911	the end
-1.6324028	one end
-1.4941001	edx end
-1.3561604	comment string
-1.6073207	one string
-1.0871086	end string
-1.0871086	al string
-1.5461476	the null
-1.3598621	string null
-1.20227	n null
-1.0875562	a null
-1.5461476	the dash
-1.20227	null dash
-1.0871086	for dash
-0.92102	with dash
-0.3159405	dash n
-0.9282591	append a
-0.6339192	have a
-0.9282591	be a
-1.5773911	the newline
-1.3798884	string newline
-0.7755804	a newline
-1.1887633	n to
-1.1893381	newline to
-1.1893381	twelve to
-1.0767107	need to
-1.1893381	sysenter to
-1.5064136	we have
-0.9282591	check for
-1.0977618	need for
-0.6339192	strlen for
-1.9185917	comment compare
-0.6193404	compare edx
-0.87132597	pop edx
-1.1637737	pointer edx
-0.89999956	inc edx
-1.3552091	mov edx
-0.6193404	byte edx
-0.6193404	sub edx
-1.4711798	edx with
-1.6828208	rm with
-1.3158092	to see
-1.3172538	if they
-1.5944084	the same
-1.8287857	comment envp
-1.2034857	and envp
-1.3798884	esp comma
-1.4941001	edx comma
-0.9282591	envp comma
-1.1033535	comma basically
-0.63583285	basically combining
-1.4966836	four and
-0.92102	envp and
-0.6302284	argv and
-0.6302284	before and
-1.688855	cat pop
-1.2034857	and pop
-0.8975562	minus twelve
-0.9282591	change twelve
-2.0435128	line twelve
-1.2039107	twelve because
-0.9216557	this because
-1.17443	we do
-0.63055366	can do
-0.77819425	do not
-0.932036	not care
-0.63583285	care what
-0.63583285	what gets
-0.63583285	gets put
-0.7709937	already in
-0.63055366	put in
-1.1035683	in those
-0.63583285	those registers
-1.2162104	and after
-0.6339192	registers after
-1.0977618	stack after
-1.6189642	comment get
-1.2162104	and get
-0.6339192	only get
-1.2250305	argument count
-1.5488234	the first
-1.2034857	get first
-1.2939676	if there
-1.2034857	n there
-2.460883	<s> no
-1.7709198	comment no
-1.4422773	we no
-1.0767107	are no
-1.3438025	label no
-1.3905771	no arguments
-0.63055366	arguments just
-0.63055366	so just
-0.9282591	just exit
-1.6749609	label exit
-0.8975562	args exit
-1.2250305	exit instantly
-1.5064136	we take
-1.6459122	one away
-0.6339192	away from
-0.6339192	name from
-0.6339192	character from
-1.4688797	we will
-0.9216557	there will
-0.6043543	will be
-0.932036	be assured
-1.9185917	comment kernel
-0.63583285	kernel interrupt
-0.9282591	not need
-1.3798884	no need
-0.6339192	longer need
-1.0880408	for bswap
-0.9216557	with bswap
-0.932036	bswap or
-0.63583285	or shift
-0.63583285	shift rubbish
-1.5881125	comment remove
-1.6399245	label remove
-1.1033535	remove program
-0.63583285	program name
-1.8839837	comment stack
-1.5773911	the stack
-0.6339192	any stack
-1.1033535	need it
-1.9185917	comment removes
-1.2237828	newline character
-1.1033535	from memory
-1.2235703	null between
-0.63583285	between argv
-0.932036	first bit
-0.63055366	bit of
-0.63055366	track of
-1.9185917	comment so
-0.932036	just use
-0.63583285	use any
-1.1033535	stack garbage
-1.0884752	do this
-1.0880408	after this
-1.0673674	string pointer
-0.9282591	ebp pointer
-1.4406196	mov pointer
-0.9008932	pointer is
-1.9185917	comment that
-0.63583285	that before
-1.2235703	null terminator
-1.5064136	we can
-1.3905771	no longer
-1.3158092	to keep
-0.63583285	keep track
-2.2460897	cat dec
-1.216502	pop ebx
-0.6339192	dec ebx
-0.9282591	inc ebx
-1.9688525	cat inc
-1.9185917	comment stdout
-2.2460897	cat jne
-0.9292588	cat label
-0.6265686	jne label
-0.6265686	jnz label
-0.5959246	jz label
-0.6265686	push label
-1.3935088	label main
-2.2460897	cat jnz
-1.3935088	label most
-1.0583644	no args
-0.5995527	most args
-1.9688525	cat jz
-0.9009943	final arg
-1.9185917	comment only
-1.2235703	get strlen
-1.1033535	remove nl
-1.6960883	label start
-2.2091198	cat sysenter
-1.3828542	label sysenter
-0.9282591	change sysenter
-0.9008932	sysenter cont
-2.2460897	cat lea
-0.63055366	lea ebp
-1.4196262	mov ebp
-1.0177375	cat mov
-1.0880408	end al
-1.120852	mov al
-1.4529489	mov byte
-1.3905771	string space
-1.4406196	mov eax
-1.0977618	eax eax
-0.6339192	xor eax
-1.3905771	esp plus
-2.2460897	cat push
-2.2460897	cat sub
-1.3905771	string length
-2.2460897	cat xor
-2.5148346	<s> change
-0.9216557	global change
-1.2731586	to three
-1.9277943	line three
-1.3401756	thirty three
-1.5165129	twenty three
-1.4417627	eighty three
-2.3115947	<s> global
-1.3158092	to syscall
-1.0475224	<s> rm
-0.9216557	global rm
-0.5309703	<s> line
-1.9869305	line eight
-1.5484471	twenty eight
-2.0790856	line eighteen
-2.0790856	line eleven
-2.0790856	line fifteen
-1.9818108	line five
-1.3594432	thirty five
-1.5457616	twenty five
-1.4662535	eighty five
-2.0790856	line fourteen
-2.0435128	line nine
-1.5771234	twenty nine
-1.4922084	eighty nine
-2.0790856	line nineteen
-2.0435128	line seven
-1.5771234	twenty seven
-1.4922084	eighty seven
-2.0790856	line seventeen
-2.0435128	line six
-1.5771234	twenty six
-1.4922084	eighty six
-2.0790856	line sixteen
-2.0790856	line ten
-2.0790856	line thirteen
-0.943251	line thirty
-1.9818108	line two
-1.3594432	thirty two
-1.5457616	twenty two
-1.4662535	eighty two
-0.6415991	line twenty
-2.5975242	<s> make
-0.3397775	rm eighty
-1.4047105	rm ninety
-1.6459122	one hundred
-1.6459122	one thousand
-2.5975242	<s> run
-2.5975242	<s> save
-2.5975242	<s> shell
-2.5975242	<s> undo
-2.266829	<s> unindent
-1.0884752	unindent unindent
-2.5975242	<s> yes

\end\
